digraph Tree {
node [shape=box, style="filled", color="black", fontname="helvetica"] ;
edge [fontname="helvetica"] ;
0 [label="petal width (cm) <= 1.775\ngini = 0.496\nsamples = 70\nvalue = [38, 32]\nclass = 2", fillcolor="#fbebe0"] ;
1 [label="sepal length (cm) <= 7.1\ngini = 0.139\nsamples = 40\nvalue = [37, 3]\nclass = 2", fillcolor="#e78b49"] ;
0 -> 1 [labeldistance=2.5, labelangle=45, headlabel="True"] ;
2 [label="sepal length (cm) <= 5.9\ngini = 0.097\nsamples = 39\nvalue = [37, 2]\nclass = 2", fillcolor="#e68844"] ;
1 -> 2 ;
3 [label="gini = 0.0\nsamples = 19\nvalue = [19, 0]\nclass = 2", fillcolor="#e58139"] ;
2 -> 3 ;
4 [label="petal width (cm) <= 1.525\ngini = 0.18\nsamples = 20\nvalue = [18, 2]\nclass = 2", fillcolor="#e88f4f"] ;
2 -> 4 ;
5 [label="petal width (cm) <= 1.475\ngini = 0.444\nsamples = 6\nvalue = [4, 2]\nclass = 2", fillcolor="#f2c09c"] ;
4 -> 5 ;
6 [label="petal width (cm) <= 1.425\ngini = 0.32\nsamples = 5\nvalue = [4, 1]\nclass = 2", fillcolor="#eca06a"] ;
5 -> 6 ;
7 [label="petal width (cm) <= 1.375\ngini = 0.5\nsamples = 2\nvalue = [1, 1]\nclass = 2", fillcolor="#ffffff"] ;
6 -> 7 ;
8 [label="gini = 0.0\nsamples = 1\nvalue = [1, 0]\nclass = 2", fillcolor="#e58139"] ;
7 -> 8 ;
9 [label="gini = 0.0\nsamples = 1\nvalue = [0, 1]\nclass = 1", fillcolor="#399de5"] ;
7 -> 9 ;
10 [label="gini = 0.0\nsamples = 3\nvalue = [3, 0]\nclass = 2", fillcolor="#e58139"] ;
6 -> 10 ;
11 [label="gini = 0.0\nsamples = 1\nvalue = [0, 1]\nclass = 1", fillcolor="#399de5"] ;
5 -> 11 ;
12 [label="gini = 0.0\nsamples = 14\nvalue = [14, 0]\nclass = 2", fillcolor="#e58139"] ;
4 -> 12 ;
13 [label="gini = 0.0\nsamples = 1\nvalue = [0, 1]\nclass = 1", fillcolor="#399de5"] ;
1 -> 13 ;
14 [label="sepal length (cm) <= 5.95\ngini = 0.064\nsamples = 30\nvalue = [1, 29]\nclass = 1", fillcolor="#40a0e6"] ;
0 -> 14 [labeldistance=2.5, labelangle=-45, headlabel="False"] ;
15 [label="petal width (cm) <= 1.925\ngini = 0.375\nsamples = 4\nvalue = [1, 3]\nclass = 1", fillcolor="#7bbeee"] ;
14 -> 15 ;
16 [label="gini = 0.0\nsamples = 3\nvalue = [0, 3]\nclass = 1", fillcolor="#399de5"] ;
15 -> 16 ;
17 [label="gini = 0.0\nsamples = 1\nvalue = [1, 0]\nclass = 2", fillcolor="#e58139"] ;
15 -> 17 ;
18 [label="gini = 0.0\nsamples = 26\nvalue = [0, 26]\nclass = 1", fillcolor="#399de5"] ;
14 -> 18 ;
}