digraph Tree {
node [shape=box, style="filled", color="black", fontname="helvetica"] ;
edge [fontname="helvetica"] ;
0 [label="odor_n <= 0.5\ngini = 0.499\nsamples = 5686\nvalue = [2941, 2745]\nclass = e", fillcolor="#fdf7f2"] ;
1 [label="stalk-root_c <= 0.5\ngini = 0.286\nsamples = 3211\nvalue = [554, 2657]\nclass = p", fillcolor="#62b1ea"] ;
0 -> 1 [labeldistance=2.5, labelangle=45, headlabel="True"] ;
2 [label="stalk-surface-below-ring_y <= 0.5\ngini = 0.132\nsamples = 2828\nvalue = [201, 2627]\nclass = p", fillcolor="#48a4e7"] ;
1 -> 2 ;
3 [label="odor_l <= 0.5\ngini = 0.051\nsamples = 2698\nvalue = [71, 2627]\nclass = p", fillcolor="#3ea0e6"] ;
2 -> 3 ;
4 [label="odor_a <= 0.5\ngini = 0.024\nsamples = 2659\nvalue = [32, 2627]\nclass = p", fillcolor="#3b9ee5"] ;
3 -> 4 ;
5 [label="gini = 0.0\nsamples = 2627\nvalue = [0, 2627]\nclass = p", fillcolor="#399de5"] ;
4 -> 5 ;
6 [label="gini = 0.0\nsamples = 32\nvalue = [32, 0]\nclass = e", fillcolor="#e58139"] ;
4 -> 6 ;
7 [label="gini = 0.0\nsamples = 39\nvalue = [39, 0]\nclass = e", fillcolor="#e58139"] ;
3 -> 7 ;
8 [label="gini = 0.0\nsamples = 130\nvalue = [130, 0]\nclass = e", fillcolor="#e58139"] ;
2 -> 8 ;
9 [label="population_c <= 0.5\ngini = 0.144\nsamples = 383\nvalue = [353, 30]\nclass = e", fillcolor="#e78c4a"] ;
1 -> 9 ;
10 [label="gini = 0.0\nsamples = 353\nvalue = [353, 0]\nclass = e", fillcolor="#e58139"] ;
9 -> 10 ;
11 [label="gini = 0.0\nsamples = 30\nvalue = [0, 30]\nclass = p", fillcolor="#399de5"] ;
9 -> 11 ;
12 [label="spore-print-color_r <= 0.5\ngini = 0.069\nsamples = 2475\nvalue = [2387, 88]\nclass = e", fillcolor="#e68640"] ;
0 -> 12 [labeldistance=2.5, labelangle=-45, headlabel="False"] ;
13 [label="stalk-surface-below-ring_y <= 0.5\ngini = 0.026\nsamples = 2419\nvalue = [2387, 32]\nclass = e", fillcolor="#e5833c"] ;
12 -> 13 ;
14 [label="cap-surface_g <= 0.5\ngini = 0.005\nsamples = 2381\nvalue = [2375, 6]\nclass = e", fillcolor="#e5813a"] ;
13 -> 14 ;
15 [label="cap-shape_c <= 0.5\ngini = 0.003\nsamples = 2378\nvalue = [2375, 3]\nclass = e", fillcolor="#e58139"] ;
14 -> 15 ;
16 [label="gill-size_b <= 0.5\ngini = 0.002\nsamples = 2377\nvalue = [2375, 2]\nclass = e", fillcolor="#e58139"] ;
15 -> 16 ;
17 [label="population_c <= 0.5\ngini = 0.027\nsamples = 146\nvalue = [144, 2]\nclass = e", fillcolor="#e5833c"] ;
16 -> 17 ;
18 [label="gini = 0.0\nsamples = 144\nvalue = [144, 0]\nclass = e", fillcolor="#e58139"] ;
17 -> 18 ;
19 [label="gini = 0.0\nsamples = 2\nvalue = [0, 2]\nclass = p", fillcolor="#399de5"] ;
17 -> 19 ;
20 [label="gini = 0.0\nsamples = 2231\nvalue = [2231, 0]\nclass = e", fillcolor="#e58139"] ;
16 -> 20 ;
21 [label="gini = 0.0\nsamples = 1\nvalue = [0, 1]\nclass = p", fillcolor="#399de5"] ;
15 -> 21 ;
22 [label="gini = 0.0\nsamples = 3\nvalue = [0, 3]\nclass = p", fillcolor="#399de5"] ;
14 -> 22 ;
23 [label="population_y <= 0.5\ngini = 0.432\nsamples = 38\nvalue = [12, 26]\nclass = p", fillcolor="#94caf1"] ;
13 -> 23 ;
24 [label="gini = 0.0\nsamples = 26\nvalue = [0, 26]\nclass = p", fillcolor="#399de5"] ;
23 -> 24 ;
25 [label="gini = 0.0\nsamples = 12\nvalue = [12, 0]\nclass = e", fillcolor="#e58139"] ;
23 -> 25 ;
26 [label="gini = 0.0\nsamples = 56\nvalue = [0, 56]\nclass = p", fillcolor="#399de5"] ;
12 -> 26 ;
}